/*
 * layer_0.h
 *
 * Created on : 2023-11-05 21:16:45
 * Author: <Your name>
 * Purpose: <Classify <your things>
 * Model ID: 22209
 */

#ifndef layer_0_H_
#define layer_0_H_

/* Add the CControl header file */
#include "ccontrol.h"

/*
 * This is a Neural Network - A model that can classify raw data.
 * Most used for images, but you can use it at any data you want as long the data is stored into .pgm files in format P2 or P5.
 * This file contains one matrix called 'layer_0_w' and one vector called 'layer_0_b'.
 * To use this header file, your data that must be a vector of size 'layer_0_column' in row-major.
 * For example, if you have an image with size m * n, where m * n = 'layer_0_column', then you need to turn it into a vector in row-wise, not in column-wise.
 * Multiply your vector together with the matrix 'layer_0_w' and add vector 'layer_0_b'. Then you will get a new vector called y with the size 'layer_0_row'.
 * y = layer_0_w*your_data_vector + layer_0_b
 * The index of the largest number inside the vector y is the class ID of your_data_vector.
 * If you get wrong class ID, then you need to use take account to noise or use better dimension reduction.
 */

#define layer_0_row 5
#define layer_0_column 88

const static float layer_0_w[layer_0_row * layer_0_column] = { 2.220702358e-02f, 1.418552920e-02f, -7.397510856e-02f, -5.150416121e-02f, -2.190390369e-04f, -2.117902786e-02f, -6.735664606e-02f, -5.424616486e-02f, 7.003487647e-02f, 7.003487647e-02f, 7.003487647e-02f, 7.003487647e-02f, 7.003487647e-02f, 1.449386775e-02f, 2.675598487e-02f, 3.206854686e-02f, 2.793145366e-03f, -2.851773798e-02f, -1.438025385e-01f, -8.508990705e-02f, -6.031810120e-02f, -6.909819692e-02f, -6.949820369e-02f, -6.646408886e-02f, 6.360447407e-02f, 6.360447407e-02f, 6.360447407e-02f, 3.282739967e-02f, 3.282739967e-02f, 4.256575368e-03f, 3.812026698e-03f, 3.212990612e-02f, -3.738943860e-02f, -1.298949271e-01f, -1.672317684e-01f, -8.057169616e-02f, -3.199398145e-02f, -4.759592563e-02f, -4.346758127e-02f, -3.255185485e-02f, 3.194021806e-02f, 3.194021806e-02f, 3.194021806e-02f, 3.194021806e-02f, 2.856233157e-03f, 1.852009818e-02f, 2.907405421e-02f, 1.540825423e-02f, -3.009092249e-02f, -1.191553771e-01f, -1.566265821e-01f, -1.150209084e-01f, -7.789941132e-02f, -5.233474076e-02f, -3.766396642e-02f, -1.502956636e-02f, 4.620375112e-02f, 4.620375112e-02f, 4.122171924e-02f, 4.122171924e-02f, 1.044463553e-02f, 1.353807468e-02f, -1.170000527e-03f, -3.682795912e-02f, -7.424889505e-02f, -9.791602194e-02f, -1.021827161e-01f, -6.822554022e-02f, 4.028237425e-03f, 1.572158188e-02f, 1.649734378e-02f, 3.059061617e-02f, 8.092059940e-02f, 8.092059940e-02f, 7.593856007e-02f, 7.593856007e-02f, 7.593856007e-02f, 2.263789251e-02f, 1.850735024e-02f, -1.380921248e-02f, 3.845589235e-02f, -9.865561500e-03f, -9.865561500e-03f, -6.697338820e-02f, -7.273531705e-02f, -9.826657921e-02f, -7.552658021e-02f, -7.482507825e-02f, 
-2.117902786e-02f, -6.735664606e-02f, -5.424616486e-02f, 7.003487647e-02f, 7.003487647e-02f, 7.003487647e-02f, 7.003487647e-02f, 7.003487647e-02f, 1.449386775e-02f, 2.675598487e-02f, 3.206854686e-02f, 2.793145366e-03f, -2.851773798e-02f, -1.438025385e-01f, -8.508990705e-02f, -6.031810120e-02f, -6.909819692e-02f, -6.949820369e-02f, -6.646408886e-02f, 6.360447407e-02f, 6.360447407e-02f, 6.360447407e-02f, 3.282739967e-02f, 3.282739967e-02f, 4.256575368e-03f, 3.812026698e-03f, 3.212990612e-02f, -3.738943860e-02f, -1.298949271e-01f, -1.672317684e-01f, -8.057169616e-02f, -3.199398145e-02f, -4.759592563e-02f, -4.346758127e-02f, -3.255185485e-02f, 3.194021806e-02f, 3.194021806e-02f, 3.194021806e-02f, 3.194021806e-02f, 2.856233157e-03f, 1.852009818e-02f, 2.907405421e-02f, 1.540825423e-02f, -3.009092249e-02f, -1.191553771e-01f, -1.566265821e-01f, -1.150209084e-01f, -7.789941132e-02f, -5.233474076e-02f, -3.766396642e-02f, -1.502956636e-02f, 4.620375112e-02f, 4.620375112e-02f, 4.122171924e-02f, 4.122171924e-02f, 1.044463553e-02f, 1.353807468e-02f, -1.170000527e-03f, -3.682795912e-02f, -7.424889505e-02f, -9.791602194e-02f, -1.021827161e-01f, -6.822554022e-02f, 4.028237425e-03f, 1.572158188e-02f, 1.649734378e-02f, 3.059061617e-02f, 8.092059940e-02f, 8.092059940e-02f, 7.593856007e-02f, 7.593856007e-02f, 7.593856007e-02f, 2.263789251e-02f, 1.850735024e-02f, -1.380921248e-02f, 3.845589235e-02f, -9.865561500e-03f, -9.865561500e-03f, -6.697338820e-02f, -7.273531705e-02f, -9.826657921e-02f, -7.552658021e-02f, -7.482507825e-02f, 6.205676123e-02f, 3.256005049e-02f, 1.071345210e-01f, 8.299876750e-02f, -2.192400023e-02f, 
7.003487647e-02f, 7.003487647e-02f, 7.003487647e-02f, 1.449386775e-02f, 2.675598487e-02f, 3.206854686e-02f, 2.793145366e-03f, -2.851773798e-02f, -1.438025385e-01f, -8.508990705e-02f, -6.031810120e-02f, -6.909819692e-02f, -6.949820369e-02f, -6.646408886e-02f, 6.360447407e-02f, 6.360447407e-02f, 6.360447407e-02f, 3.282739967e-02f, 3.282739967e-02f, 4.256575368e-03f, 3.812026698e-03f, 3.212990612e-02f, -3.738943860e-02f, -1.298949271e-01f, -1.672317684e-01f, -8.057169616e-02f, -3.199398145e-02f, -4.759592563e-02f, -4.346758127e-02f, -3.255185485e-02f, 3.194021806e-02f, 3.194021806e-02f, 3.194021806e-02f, 3.194021806e-02f, 2.856233157e-03f, 1.852009818e-02f, 2.907405421e-02f, 1.540825423e-02f, -3.009092249e-02f, -1.191553771e-01f, -1.566265821e-01f, -1.150209084e-01f, -7.789941132e-02f, -5.233474076e-02f, -3.766396642e-02f, -1.502956636e-02f, 4.620375112e-02f, 4.620375112e-02f, 4.122171924e-02f, 4.122171924e-02f, 1.044463553e-02f, 1.353807468e-02f, -1.170000527e-03f, -3.682795912e-02f, -7.424889505e-02f, -9.791602194e-02f, -1.021827161e-01f, -6.822554022e-02f, 4.028237425e-03f, 1.572158188e-02f, 1.649734378e-02f, 3.059061617e-02f, 8.092059940e-02f, 8.092059940e-02f, 7.593856007e-02f, 7.593856007e-02f, 7.593856007e-02f, 2.263789251e-02f, 1.850735024e-02f, -1.380921248e-02f, 3.845589235e-02f, -9.865561500e-03f, -9.865561500e-03f, -6.697338820e-02f, -7.273531705e-02f, -9.826657921e-02f, -7.552658021e-02f, -7.482507825e-02f, 6.205676123e-02f, 3.256005049e-02f, 1.071345210e-01f, 8.299876750e-02f, -2.192400023e-02f, 7.257050369e-03f, -1.116927247e-02f, -1.487757731e-02f, 1.639547385e-02f, 2.301492915e-02f, 
3.206854686e-02f, 2.793145366e-03f, -2.851773798e-02f, -1.438025385e-01f, -8.508990705e-02f, -6.031810120e-02f, -6.909819692e-02f, -6.949820369e-02f, -6.646408886e-02f, 6.360447407e-02f, 6.360447407e-02f, 6.360447407e-02f, 3.282739967e-02f, 3.282739967e-02f, 4.256575368e-03f, 3.812026698e-03f, 3.212990612e-02f, -3.738943860e-02f, -1.298949271e-01f, -1.672317684e-01f, -8.057169616e-02f, -3.199398145e-02f, -4.759592563e-02f, -4.346758127e-02f, -3.255185485e-02f, 3.194021806e-02f, 3.194021806e-02f, 3.194021806e-02f, 3.194021806e-02f, 2.856233157e-03f, 1.852009818e-02f, 2.907405421e-02f, 1.540825423e-02f, -3.009092249e-02f, -1.191553771e-01f, -1.566265821e-01f, -1.150209084e-01f, -7.789941132e-02f, -5.233474076e-02f, -3.766396642e-02f, -1.502956636e-02f, 4.620375112e-02f, 4.620375112e-02f, 4.122171924e-02f, 4.122171924e-02f, 1.044463553e-02f, 1.353807468e-02f, -1.170000527e-03f, -3.682795912e-02f, -7.424889505e-02f, -9.791602194e-02f, -1.021827161e-01f, -6.822554022e-02f, 4.028237425e-03f, 1.572158188e-02f, 1.649734378e-02f, 3.059061617e-02f, 8.092059940e-02f, 8.092059940e-02f, 7.593856007e-02f, 7.593856007e-02f, 7.593856007e-02f, 2.263789251e-02f, 1.850735024e-02f, -1.380921248e-02f, 3.845589235e-02f, -9.865561500e-03f, -9.865561500e-03f, -6.697338820e-02f, -7.273531705e-02f, -9.826657921e-02f, -7.552658021e-02f, -7.482507825e-02f, 6.205676123e-02f, 3.256005049e-02f, 1.071345210e-01f, 8.299876750e-02f, -2.192400023e-02f, 7.257050369e-03f, -1.116927247e-02f, -1.487757731e-02f, 1.639547385e-02f, 2.301492915e-02f, 3.686992917e-03f, 3.686992917e-03f, 7.833986543e-03f, 2.471556887e-02f, -4.374861252e-03f, 
-6.031810120e-02f, -6.909819692e-02f, -6.949820369e-02f, -6.646408886e-02f, 6.360447407e-02f, 6.360447407e-02f, 6.360447407e-02f, 3.282739967e-02f, 3.282739967e-02f, 4.256575368e-03f, 3.812026698e-03f, 3.212990612e-02f, -3.738943860e-02f, -1.298949271e-01f, -1.672317684e-01f, -8.057169616e-02f, -3.199398145e-02f, -4.759592563e-02f, -4.346758127e-02f, -3.255185485e-02f, 3.194021806e-02f, 3.194021806e-02f, 3.194021806e-02f, 3.194021806e-02f, 2.856233157e-03f, 1.852009818e-02f, 2.907405421e-02f, 1.540825423e-02f, -3.009092249e-02f, -1.191553771e-01f, -1.566265821e-01f, -1.150209084e-01f, -7.789941132e-02f, -5.233474076e-02f, -3.766396642e-02f, -1.502956636e-02f, 4.620375112e-02f, 4.620375112e-02f, 4.122171924e-02f, 4.122171924e-02f, 1.044463553e-02f, 1.353807468e-02f, -1.170000527e-03f, -3.682795912e-02f, -7.424889505e-02f, -9.791602194e-02f, -1.021827161e-01f, -6.822554022e-02f, 4.028237425e-03f, 1.572158188e-02f, 1.649734378e-02f, 3.059061617e-02f, 8.092059940e-02f, 8.092059940e-02f, 7.593856007e-02f, 7.593856007e-02f, 7.593856007e-02f, 2.263789251e-02f, 1.850735024e-02f, -1.380921248e-02f, 3.845589235e-02f, -9.865561500e-03f, -9.865561500e-03f, -6.697338820e-02f, -7.273531705e-02f, -9.826657921e-02f, -7.552658021e-02f, -7.482507825e-02f, 6.205676123e-02f, 3.256005049e-02f, 1.071345210e-01f, 8.299876750e-02f, -2.192400023e-02f, 7.257050369e-03f, -1.116927247e-02f, -1.487757731e-02f, 1.639547385e-02f, 2.301492915e-02f, 3.686992917e-03f, 3.686992917e-03f, 7.833986543e-03f, 2.471556887e-02f, -4.374861252e-03f, -2.408562787e-02f, 4.590586200e-02f, 5.306184664e-02f, 1.192637682e-01f, 4.786752537e-02f };

const static float layer_0_b[layer_0_row] = { -4.463211596e-01f, -2.164094448e+00f, 9.657940269e-01f, -4.064392090e+00f, -2.170830488e+00f };

const static ACTIVATION_FUNCTION layer_0_activtion_function = ACTIVATION_FUNCTION_CLOSEST_VALUE_INDEX;

#endif /* !layer_0_H_ */
