/*
 * layer_0.h
 *
 * Created on : 2023-11-05 17:07:47
 * Author: <Your name>
 * Purpose: <Classify <your things>
 * Model ID: 6196
 */

#ifndef layer_0_H_
#define layer_0_H_

/* Add the CControl header file */
#include "ccontrol.h"

/*
 * This is a Neural Network - A model that can classify raw data.
 * Most used for images, but you can use it at any data you want as long the data is stored into .pgm files in format P2 or P5.
 * This file contains one matrix called 'layer_0_w' and one vector called 'layer_0_b'.
 * To use this header file, your data that must be a vector of size 'layer_0_column' in row-major.
 * For example, if you have an image with size m * n, where m * n = 'layer_0_column', then you need to turn it into a vector in row-wise, not in column-wise.
 * Multiply your vector together with the matrix 'layer_0_w' and add vector 'layer_0_b'. Then you will get a new vector called y with the size 'layer_0_row'.
 * y = layer_0_w*your_data_vector + layer_0_b
 * The index of the largest number inside the vector y is the class ID of your_data_vector.
 * If you get wrong class ID, then you need to use take account to noise or use better dimension reduction.
 */

#define layer_0_row 5
#define layer_0_column 88

const static float layer_0_w[layer_0_row * layer_0_column] = { 2.379435673e-02f, 3.198819607e-02f, 7.150446624e-02f, 1.014798656e-01f, 1.103738770e-01f, 1.278931648e-01f, 6.469670683e-02f, 7.606469840e-02f, 2.236698940e-02f, 3.655262291e-02f, 3.952904791e-02f, 4.011378437e-02f, 4.372046143e-02f, 2.489542589e-02f, 8.817249909e-05f, -2.354709059e-02f, 3.427316993e-02f, 5.294264853e-02f, 9.498943388e-02f, 1.122510508e-01f, 1.307832450e-01f, 1.512137502e-01f, 7.760497928e-02f, 8.047991246e-02f, 4.363533109e-02f, 4.439181089e-02f, 4.968603700e-02f, 2.723927982e-02f, -3.230146319e-02f, -4.660940915e-02f, -4.099195451e-02f, -8.313255012e-02f, -3.583876789e-02f, -4.541733861e-02f, -2.013533749e-02f, -1.420718618e-03f, 5.710751750e-03f, 6.369128078e-02f, 9.508645162e-04f, 4.702655971e-02f, 1.471193507e-02f, 1.546841487e-02f, 2.017790452e-02f, 3.655997664e-02f, -3.351654857e-02f, -2.645722032e-02f, -5.502666533e-02f, -7.572150975e-02f, -2.081195265e-02f, -5.069214851e-02f, -1.187634394e-01f, -1.241176799e-01f, -1.865016073e-01f, -1.520841122e-01f, -1.694115549e-01f, -1.434794664e-01f, 1.717693731e-02f, 1.920506731e-02f, -3.005993180e-02f, -1.367786899e-02f, -3.276947886e-02f, -3.507124260e-02f, -5.318243429e-02f, -4.742047191e-02f, 5.075002462e-02f, 1.365619991e-02f, -9.820865467e-03f, -9.875506908e-02f, -1.387413144e-01f, -9.281349927e-02f, -7.764673978e-02f, -7.745100558e-02f, 3.132836521e-02f, 3.216967732e-02f, -8.404508233e-03f, 7.977543399e-03f, 1.796787418e-02f, 3.014727682e-02f, 3.391731158e-02f, -1.486023515e-02f, 6.765843835e-03f, 8.896501735e-03f, 2.399191260e-02f, 1.764784381e-02f, 1.745058596e-02f, -2.450389042e-02f, -9.246729314e-02f, -3.200338781e-02f, 
1.278931648e-01f, 6.469670683e-02f, 7.606469840e-02f, 2.236698940e-02f, 3.655262291e-02f, 3.952904791e-02f, 4.011378437e-02f, 4.372046143e-02f, 2.489542589e-02f, 8.817249909e-05f, -2.354709059e-02f, 3.427316993e-02f, 5.294264853e-02f, 9.498943388e-02f, 1.122510508e-01f, 1.307832450e-01f, 1.512137502e-01f, 7.760497928e-02f, 8.047991246e-02f, 4.363533109e-02f, 4.439181089e-02f, 4.968603700e-02f, 2.723927982e-02f, -3.230146319e-02f, -4.660940915e-02f, -4.099195451e-02f, -8.313255012e-02f, -3.583876789e-02f, -4.541733861e-02f, -2.013533749e-02f, -1.420718618e-03f, 5.710751750e-03f, 6.369128078e-02f, 9.508645162e-04f, 4.702655971e-02f, 1.471193507e-02f, 1.546841487e-02f, 2.017790452e-02f, 3.655997664e-02f, -3.351654857e-02f, -2.645722032e-02f, -5.502666533e-02f, -7.572150975e-02f, -2.081195265e-02f, -5.069214851e-02f, -1.187634394e-01f, -1.241176799e-01f, -1.865016073e-01f, -1.520841122e-01f, -1.694115549e-01f, -1.434794664e-01f, 1.717693731e-02f, 1.920506731e-02f, -3.005993180e-02f, -1.367786899e-02f, -3.276947886e-02f, -3.507124260e-02f, -5.318243429e-02f, -4.742047191e-02f, 5.075002462e-02f, 1.365619991e-02f, -9.820865467e-03f, -9.875506908e-02f, -1.387413144e-01f, -9.281349927e-02f, -7.764673978e-02f, -7.745100558e-02f, 3.132836521e-02f, 3.216967732e-02f, -8.404508233e-03f, 7.977543399e-03f, 1.796787418e-02f, 3.014727682e-02f, 3.391731158e-02f, -1.486023515e-02f, 6.765843835e-03f, 8.896501735e-03f, 2.399191260e-02f, 1.764784381e-02f, 1.745058596e-02f, -2.450389042e-02f, -9.246729314e-02f, -3.200338781e-02f, 7.321608812e-02f, 6.347244233e-02f, -3.336277232e-02f, -1.836894825e-02f, -8.922920376e-02f, 
3.952904791e-02f, 4.011378437e-02f, 4.372046143e-02f, 2.489542589e-02f, 8.817249909e-05f, -2.354709059e-02f, 3.427316993e-02f, 5.294264853e-02f, 9.498943388e-02f, 1.122510508e-01f, 1.307832450e-01f, 1.512137502e-01f, 7.760497928e-02f, 8.047991246e-02f, 4.363533109e-02f, 4.439181089e-02f, 4.968603700e-02f, 2.723927982e-02f, -3.230146319e-02f, -4.660940915e-02f, -4.099195451e-02f, -8.313255012e-02f, -3.583876789e-02f, -4.541733861e-02f, -2.013533749e-02f, -1.420718618e-03f, 5.710751750e-03f, 6.369128078e-02f, 9.508645162e-04f, 4.702655971e-02f, 1.471193507e-02f, 1.546841487e-02f, 2.017790452e-02f, 3.655997664e-02f, -3.351654857e-02f, -2.645722032e-02f, -5.502666533e-02f, -7.572150975e-02f, -2.081195265e-02f, -5.069214851e-02f, -1.187634394e-01f, -1.241176799e-01f, -1.865016073e-01f, -1.520841122e-01f, -1.694115549e-01f, -1.434794664e-01f, 1.717693731e-02f, 1.920506731e-02f, -3.005993180e-02f, -1.367786899e-02f, -3.276947886e-02f, -3.507124260e-02f, -5.318243429e-02f, -4.742047191e-02f, 5.075002462e-02f, 1.365619991e-02f, -9.820865467e-03f, -9.875506908e-02f, -1.387413144e-01f, -9.281349927e-02f, -7.764673978e-02f, -7.745100558e-02f, 3.132836521e-02f, 3.216967732e-02f, -8.404508233e-03f, 7.977543399e-03f, 1.796787418e-02f, 3.014727682e-02f, 3.391731158e-02f, -1.486023515e-02f, 6.765843835e-03f, 8.896501735e-03f, 2.399191260e-02f, 1.764784381e-02f, 1.745058596e-02f, -2.450389042e-02f, -9.246729314e-02f, -3.200338781e-02f, 7.321608812e-02f, 6.347244233e-02f, -3.336277232e-02f, -1.836894825e-02f, -8.922920376e-02f, -8.819347620e-02f, -1.444197595e-01f, -7.890399545e-02f, 6.091568619e-03f, 6.091568619e-03f, 
-2.354709059e-02f, 3.427316993e-02f, 5.294264853e-02f, 9.498943388e-02f, 1.122510508e-01f, 1.307832450e-01f, 1.512137502e-01f, 7.760497928e-02f, 8.047991246e-02f, 4.363533109e-02f, 4.439181089e-02f, 4.968603700e-02f, 2.723927982e-02f, -3.230146319e-02f, -4.660940915e-02f, -4.099195451e-02f, -8.313255012e-02f, -3.583876789e-02f, -4.541733861e-02f, -2.013533749e-02f, -1.420718618e-03f, 5.710751750e-03f, 6.369128078e-02f, 9.508645162e-04f, 4.702655971e-02f, 1.471193507e-02f, 1.546841487e-02f, 2.017790452e-02f, 3.655997664e-02f, -3.351654857e-02f, -2.645722032e-02f, -5.502666533e-02f, -7.572150975e-02f, -2.081195265e-02f, -5.069214851e-02f, -1.187634394e-01f, -1.241176799e-01f, -1.865016073e-01f, -1.520841122e-01f, -1.694115549e-01f, -1.434794664e-01f, 1.717693731e-02f, 1.920506731e-02f, -3.005993180e-02f, -1.367786899e-02f, -3.276947886e-02f, -3.507124260e-02f, -5.318243429e-02f, -4.742047191e-02f, 5.075002462e-02f, 1.365619991e-02f, -9.820865467e-03f, -9.875506908e-02f, -1.387413144e-01f, -9.281349927e-02f, -7.764673978e-02f, -7.745100558e-02f, 3.132836521e-02f, 3.216967732e-02f, -8.404508233e-03f, 7.977543399e-03f, 1.796787418e-02f, 3.014727682e-02f, 3.391731158e-02f, -1.486023515e-02f, 6.765843835e-03f, 8.896501735e-03f, 2.399191260e-02f, 1.764784381e-02f, 1.745058596e-02f, -2.450389042e-02f, -9.246729314e-02f, -3.200338781e-02f, 7.321608812e-02f, 6.347244233e-02f, -3.336277232e-02f, -1.836894825e-02f, -8.922920376e-02f, -8.819347620e-02f, -1.444197595e-01f, -7.890399545e-02f, 6.091568619e-03f, 6.091568619e-03f, -2.911070129e-03f, 7.917264011e-04f, -4.221869167e-03f, -4.221869167e-03f, 4.960661754e-02f, 
1.307832450e-01f, 1.512137502e-01f, 7.760497928e-02f, 8.047991246e-02f, 4.363533109e-02f, 4.439181089e-02f, 4.968603700e-02f, 2.723927982e-02f, -3.230146319e-02f, -4.660940915e-02f, -4.099195451e-02f, -8.313255012e-02f, -3.583876789e-02f, -4.541733861e-02f, -2.013533749e-02f, -1.420718618e-03f, 5.710751750e-03f, 6.369128078e-02f, 9.508645162e-04f, 4.702655971e-02f, 1.471193507e-02f, 1.546841487e-02f, 2.017790452e-02f, 3.655997664e-02f, -3.351654857e-02f, -2.645722032e-02f, -5.502666533e-02f, -7.572150975e-02f, -2.081195265e-02f, -5.069214851e-02f, -1.187634394e-01f, -1.241176799e-01f, -1.865016073e-01f, -1.520841122e-01f, -1.694115549e-01f, -1.434794664e-01f, 1.717693731e-02f, 1.920506731e-02f, -3.005993180e-02f, -1.367786899e-02f, -3.276947886e-02f, -3.507124260e-02f, -5.318243429e-02f, -4.742047191e-02f, 5.075002462e-02f, 1.365619991e-02f, -9.820865467e-03f, -9.875506908e-02f, -1.387413144e-01f, -9.281349927e-02f, -7.764673978e-02f, -7.745100558e-02f, 3.132836521e-02f, 3.216967732e-02f, -8.404508233e-03f, 7.977543399e-03f, 1.796787418e-02f, 3.014727682e-02f, 3.391731158e-02f, -1.486023515e-02f, 6.765843835e-03f, 8.896501735e-03f, 2.399191260e-02f, 1.764784381e-02f, 1.745058596e-02f, -2.450389042e-02f, -9.246729314e-02f, -3.200338781e-02f, 7.321608812e-02f, 6.347244233e-02f, -3.336277232e-02f, -1.836894825e-02f, -8.922920376e-02f, -8.819347620e-02f, -1.444197595e-01f, -7.890399545e-02f, 6.091568619e-03f, 6.091568619e-03f, -2.911070129e-03f, 7.917264011e-04f, -4.221869167e-03f, -4.221869167e-03f, 4.960661754e-02f, 8.171132207e-02f, 7.769602537e-02f, 9.858954698e-02f, -1.874051243e-02f, -1.625088044e-02f };

const static float layer_0_b[layer_0_row] = { -1.014727592e+00f, -2.004855871e+00f, -4.078911781e+00f, -7.000908852e-01f, 1.069044709e+00f };

const static ACTIVATION_FUNCTION layer_0_activtion_function = ACTIVTION_FUNCTION_CLOSEST_VALUE_INDEX;

#endif /* !layer_0_H_ */
